<?xml version="1.0"?>
<opencv_storage>
<cascade>
  <stageType>BOOST</stageType>
  <featureType>HOG</featureType>
  <height>24</height>
  <width>24</width>
  <stageParams>
    <boostType>GAB</boostType>
    <minHitRate>9.9500000476837158e-001</minHitRate>
    <maxFalseAlarm>5.0000000000000000e-001</maxFalseAlarm>
    <weightTrimRate>9.4999999999999996e-001</weightTrimRate>
    <maxDepth>1</maxDepth>
    <maxWeakCount>100</maxWeakCount></stageParams>
  <featureParams>
    <maxCatCount>0</maxCatCount>
    <featSize>36</featSize></featureParams>
  <stageNum>20</stageNum>
  <stages>
    <!-- stage 0 -->
    <_>
      <maxWeakCount>4</maxWeakCount>
      <stageThreshold>-1.9162397384643555e+000</stageThreshold>
      <weakClassifiers>
        <_>
          <internalNodes>
            0 -1 92 1.1176035739481449e-002</internalNodes>
          <leafValues>
            2.4057616293430328e-001 -8.8133186101913452e-001</leafValues></_>
        <_>
          <internalNodes>
            0 -1 177 3.5672821104526520e-002</internalNodes>
          <leafValues>
            -7.1666157245635986e-001 3.5227081179618835e-001</leafValues></_>
        <_>
          <internalNodes>
            0 -1 184 1.4043841511011124e-002</internalNodes>
          <leafValues>
            -8.2828205823898315e-001 2.5814896821975708e-001</leafValues></_>
        <_>
          <internalNodes>
            0 -1 29 1.4632752165198326e-002</internalNodes>
          <leafValues>
            -5.7639533281326294e-001 2.8459063172340393e-001</leafValues></_></weakClassifiers></_>
    <!-- stage 1 -->
    <_>
      <maxWeakCount>6</maxWeakCount>
      <stageThreshold>-1.5234450101852417e+000</stageThreshold>
      <weakClassifiers>
        <_>
          <internalNodes>
            0 -1 119 3.1323179602622986e-002</internalNodes>
          <leafValues>
            -8.6860251426696777e-001 -3.4229829907417297e-003</leafValues></_>
        <_>
          <internalNodes>
            0 -1 173 2.9074091464281082e-002</internalNodes>
          <leafValues>
            1.1986603587865829e-001 -8.6453968286514282e-001</leafValues></_>
        <_>
          <internalNodes>
            0 -1 177 3.9475761353969574e-002</internalNodes>
          <leafValues>
            -5.2087140083312988e-001 3.2390028238296509e-001</leafValues></_>
        <_>
          <internalNodes>
            0 -1 28 1.1275645345449448e-002</internalNodes>
          <leafValues>
            -5.8447819948196411e-001 3.6063697934150696e-001</leafValues></_>
        <_>
          <internalNodes>
            0 -1 248 1.4256077818572521e-002</internalNodes>
          <leafValues>
            -5.0363641977310181e-001 2.5064799189567566e-001</leafValues></_>
        <_>
          <internalNodes>
            0 -1 140 3.0169542878866196e-002</internalNodes>
          <leafValues>
            -6.7871606349945068e-001 1.9921922683715820e-001</leafValues></_></weakClassifiers></_>
    <!-- stage 2 -->
    <_>
      <maxWeakCount>13</maxWeakCount>
      <stageThreshold>-2.1255795955657959e+000</stageThreshold>
      <weakClassifiers>
        <_>
          <internalNodes>
            0 -1 92 2.7334718033671379e-003</internalNodes>
          <leafValues>
            2.2534583508968353e-001 -7.2088599205017090e-001</leafValues></_>
        <_>
          <internalNodes>
            0 -1 240 3.9572291076183319e-002</internalNodes>
          <leafValues>
            -5.8748155832290649e-001 2.7200430631637573e-001</leafValues></_>
        <_>
          <internalNodes>
            0 -1 169 5.5149540305137634e-002</internalNodes>
          <leafValues>
            -4.9566552042961121e-001 3.9464187622070313e-001</leafValues></_>
        <_>
          <internalNodes>
            0 -1 252 8.3957491442561150e-003</internalNodes>
          <leafValues>
            -6.2644839286804199e-001 2.1081109344959259e-001</leafValues></_>
        <_>
          <internalNodes>
            0 -1 177 6.6794723272323608e-002</internalNodes>
          <leafValues>
            -2.8188350796699524e-001 4.5799103379249573e-001</leafValues></_>
        <_>
          <internalNodes>
            0 -1 77 1.9618153572082520e-002</internalNodes>
          <leafValues>
            2.1634228527545929e-001 -4.9324446916580200e-001</leafValues></_>
        <_>
          <internalNodes>
            0 -1 96 2.2675421088933945e-002</internalNodes>
          <leafValues>
            -4.6520799398422241e-001 2.3675382137298584e-001</leafValues></_>
        <_>
          <internalNodes>
            0 -1 222 1.0870320722460747e-002</internalNodes>
          <leafValues>
            -5.2020728588104248e-001 1.8934017419815063e-001</leafValues></_>
        <_>
          <internalNodes>
            0 -1 267 1.5629742294549942e-002</internalNodes>
          <leafValues>
            2.3372633755207062e-001 -4.4227200746536255e-001</leafValues></_>
        <_>
          <internalNodes>
            0 -1 27 6.2094125896692276e-003</internalNodes>
          <leafValues>
            -5.7588082551956177e-001 1.4877569675445557e-001</leafValues></_>
        <_>
          <internalNodes>
            0 -1 25 2.9447596520185471e-002</internalNodes>
          <leafValues>
            -5.0630062818527222e-001 1.2754538655281067e-001</leafValues></_>
        <_>
          <internalNodes>
            0 -1 246 5.1141353324055672e-003</internalNodes>
          <leafValues>
            -5.7798486948013306e-001 1.0377854108810425e-001</leafValues></_>
        <_>
          <internalNodes>
            0 -1 85 1.4871787279844284e-002</internalNodes>
          <leafValues>
            1.5480256080627441e-001 -4.1252711415290833e-001</leafValues></_></weakClassifiers></_>
    <!-- stage 3 -->
    <_>
      <maxWeakCount>27</maxWeakCount>
      <stageThreshold>-2.0017101764678955e+000</stageThreshold>
      <weakClassifiers>
        <_>
          <internalNodes>
            0 -1 92 1.1707369238138199e-002</internalNodes>
          <leafValues>
            -2.9427838325500488e-001 -8.2162880897521973e-001</leafValues></_>
        <_>
          <internalNodes>
            0 -1 253 8.1403795629739761e-003</internalNodes>
          <leafValues>
            -6.5697085857391357e-001 5.3558744490146637e-002</leafValues></_>
        <_>
          <internalNodes>
            0 -1 177 4.7067750245332718e-002</internalNodes>
          <leafValues>
            -3.7679669260978699e-001 2.8524002432823181e-001</leafValues></_>
        <_>
          <internalNodes>
            0 -1 241 4.6512912958860397e-002</internalNodes>
          <leafValues>
            -3.8235569000244141e-001 2.6365837454795837e-001</leafValues></_>
        <_>
          <internalNodes>
            0 -1 222 9.9314432591199875e-003</internalNodes>
          <leafValues>
            -5.7475900650024414e-001 1.4559352397918701e-001</leafValues></_>
        <_>
          <internalNodes>
            0 -1 179 1.2554030865430832e-002</internalNodes>
          <leafValues>
            2.6456582546234131e-001 -3.2039996981620789e-001</leafValues></_>
        <_>
          <internalNodes>
            0 -1 28 6.5761087462306023e-003</internalNodes>
          <leafValues>
            -6.4023071527481079e-001 1.4203509688377380e-001</leafValues></_>
        <_>
          <internalNodes>
            0 -1 166 1.4625035226345062e-002</internalNodes>
          <leafValues>
            1.1435561627149582e-001 -4.8876875638961792e-001</leafValues></_>
        <_>
          <internalNodes>
            0 -1 48 1.0862469673156738e-002</internalNodes>
          <leafValues>
            -3.9462381601333618e-001 1.6541914641857147e-001</leafValues></_>
        <_>
          <internalNodes>
            0 -1 198 5.2933879196643829e-002</internalNodes>
          <leafValues>
            -2.5365686416625977e-001 2.5314894318580627e-001</leafValues></_>
        <_>
          <internalNodes>
            0 -1 58 1.0505100712180138e-002</internalNodes>
          <leafValues>
            -3.5621276497840881e-001 1.6502957046031952e-001</leafValues></_>
        <_>
          <internalNodes>
            0 -1 11 1.5230501070618629e-002</internalNodes>
          <leafValues>
            -5.6866258382797241e-001 9.6327796578407288e-002</leafValues></_>
        <_>
          <internalNodes>
            0 -1 169 6.4989946782588959e-002</internalNodes>
          <leafValues>
            -2.5506228208541870e-001 2.2186200320720673e-001</leafValues></_>
        <_>
          <internalNodes>
            0 -1 266 5.5277597159147263e-002</internalNodes>
          <leafValues>
            1.9288642704486847e-001 -3.7060308456420898e-001</leafValues></_>
        <_>
          <internalNodes>
            0 -1 167 1.4554090797901154e-002</internalNodes>
          <leafValues>
            1.6543874144554138e-001 -3.0678343772888184e-001</leafValues></_>
        <_>
          <internalNodes>
            0 -1 4 6.2979593873023987e-002</internalNodes>
          <leafValues>
            1.1282657086849213e-001 -4.9894061684608459e-001</leafValues></_>
        <_>
          <internalNodes>
            0 -1 221 1.2249767780303955e-002</internalNodes>
          <leafValues>
            -3.7215515971183777e-001 1.0930240154266357e-001</leafValues></_>
        <_>
          <internalNodes>
            0 -1 140 4.5736722648143768e-002</internalNodes>
          <leafValues>
            -3.2302412390708923e-001 1.6239237785339355e-001</leafValues></_>
        <_>
          <internalNodes>
            0 -1 126 1.2337636202573776e-002</internalNodes>
          <leafValues>
            -6.0983002185821533e-001 5.4194230586290359e-002</leafValues></_>
        <_>
          <internalNodes>
            0 -1 234 3.0645389109849930e-002</internalNodes>
          <leafValues>
            -2.6795271039009094e-001 1.3461488485336304e-001</leafValues></_>
        <_>
          <internalNodes>
            0 -1 108 6.0132099315524101e-003</internalNodes>
          <leafValues>
            -4.8173075914382935e-001 7.9794153571128845e-002</leafValues></_>
        <_>
          <internalNodes>
            0 -1 91 2.6447592303156853e-002</internalNodes>
          <leafValues>
            5.3674068301916122e-002 -5.6953305006027222e-001</leafValues></_>
        <_>
          <internalNodes>
            0 -1 246 1.3519433327019215e-002</internalNodes>
          <leafValues>
            -2.3501983284950256e-001 1.3437628746032715e-001</leafValues></_>
        <_>
          <internalNodes>
            0 -1 29 1.1618012562394142e-002</internalNodes>
          <leafValues>
            -3.2988244295120239e-001 8.7289094924926758e-002</leafValues></_>
        <_>
          <internalNodes>
            0 -1 185 3.9008777588605881e-002</internalNodes>
          <leafValues>
            -1.9468452036380768e-001 1.5643864870071411e-001</leafValues></_>
        <_>
          <internalNodes>
            0 -1 267 2.4938637390732765e-002</internalNodes>
          <leafValues>
            7.7564172446727753e-002 -3.8209560513496399e-001</leafValues></_>
        <_>
          <internalNodes>
            0 -1 229 5.4478873498737812e-003</internalNodes>
          <leafValues>
            -2.4597035348415375e-001 1.1902631074190140e-001</leafValues></_></weakClassifiers></_>
    <!-- stage 4 -->
    <_>
      <maxWeakCount>36</maxWeakCount>
      <stageThreshold>-1.9593759775161743e+000</stageThreshold>
      <weakClassifiers>
        <_>
          <internalNodes>
            0 -1 262 1.7455145716667175e-003</internalNodes>
          <leafValues>
            -2.9844807460904121e-002 -6.6671371459960938e-001</leafValues></_>
        <_>
          <internalNodes>
            0 -1 177 5.3709983825683594e-002</internalNodes>
          <leafValues>
            -4.0856307744979858e-001 2.0846590399742126e-001</leafValues></_>
        <_>
          <internalNodes>
            0 -1 77 1.5237357467412949e-002</internalNodes>
          <leafValues>
            1.8598546087741852e-001 -3.8428422808647156e-001</leafValues></_>
        <_>
          <internalNodes>
            0 -1 252 8.4042549133300781e-003</internalNodes>
          <leafValues>
            -5.0641155242919922e-001 1.1310043185949326e-001</leafValues></_>
        <_>
          <internalNodes>
            0 -1 198 3.4493073821067810e-002</internalNodes>
          <leafValues>
            -3.9986363053321838e-001 2.0089231431484222e-001</leafValues></_>
        <_>
          <internalNodes>
            0 -1 78 9.8196707665920258e-002</internalNodes>
          <leafValues>
            1.0034105926752090e-001 -6.3207101821899414e-001</leafValues></_>
        <_>
          <internalNodes>
            0 -1 169 5.5060159415006638e-002</internalNodes>
          <leafValues>
            -2.9821181297302246e-001 2.0119255781173706e-001</leafValues></_>
        <_>
          <internalNodes>
            0 -1 11 2.9083579778671265e-002</internalNodes>
          <leafValues>
            -3.3608064055442810e-001 1.5916427969932556e-001</leafValues></_>
        <_>
          <internalNodes>
            0 -1 64 1.3436444103717804e-002</internalNodes>
          <leafValues>
            -2.9132407903671265e-001 2.0972783863544464e-001</leafValues></_>
        <_>
          <internalNodes>
            0 -1 267 1.5128042548894882e-002</internalNodes>
          <leafValues>
            1.6275928914546967e-001 -3.5817834734916687e-001</leafValues></_>
        <_>
          <internalNodes>
            0 -1 28 2.4761699140071869e-002</internalNodes>
          <leafValues>
            -1.9788174331188202e-001 2.4889820814132690e-001</leafValues></_>
        <_>
          <internalNodes>
            0 -1 216 2.7053240686655045e-002</internalNodes>
          <leafValues>
            1.1359708756208420e-001 -3.9357784390449524e-001</leafValues></_>
        <_>
          <internalNodes>
            0 -1 191 6.7673817276954651e-002</internalNodes>
          <leafValues>
            7.0862382650375366e-002 -6.2488156557083130e-001</leafValues></_>
        <_>
          <internalNodes>
            0 -1 106 1.1477800086140633e-002</internalNodes>
          <leafValues>
            -3.6518785357475281e-001 9.4694092869758606e-002</leafValues></_>
        <_>
          <internalNodes>
            0 -1 84 1.4604745432734489e-002</internalNodes>
          <leafValues>
            1.1259394139051437e-001 -3.8378104567527771e-001</leafValues></_>
        <_>
          <internalNodes>
            0 -1 238 9.6279811114072800e-003</internalNodes>
          <leafValues>
            -3.1550151109695435e-001 1.3071639835834503e-001</leafValues></_>
        <_>
          <internalNodes>
            0 -1 268 8.3811851218342781e-003</internalNodes>
          <leafValues>
            1.8226671218872070e-001 -2.2103810310363770e-001</leafValues></_>
        <_>
          <internalNodes>
            0 -1 247 6.8489778786897659e-003</internalNodes>
          <leafValues>
            -4.2297229170799255e-001 8.5347980260848999e-002</leafValues></_>
        <_>
          <internalNodes>
            0 -1 145 2.0226351916790009e-002</internalNodes>
          <leafValues>
            -4.7271180152893066e-001 6.7720152437686920e-002</leafValues></_>
        <_>
          <internalNodes>
            0 -1 266 7.4060857295989990e-002</internalNodes>
          <leafValues>
            8.9589461684226990e-002 -3.6802771687507629e-001</leafValues></_>
        <_>
          <internalNodes>
            0 -1 224 9.0909682214260101e-002</internalNodes>
          <leafValues>
            4.2748436331748962e-002 -7.0993059873580933e-001</leafValues></_>
        <_>
          <internalNodes>
            0 -1 103 2.7680430561304092e-002</internalNodes>
          <leafValues>
            9.5359399914741516e-002 -3.2599553465843201e-001</leafValues></_>
        <_>
          <internalNodes>
            0 -1 27 2.8368257917463779e-003</internalNodes>
          <leafValues>
            -6.9963473081588745e-001 4.2303893715143204e-002</leafValues></_>
        <_>
          <internalNodes>
            0 -1 185 1.6624510288238525e-002</internalNodes>
          <leafValues>
            -5.3863573074340820e-001 5.0778783857822418e-002</leafValues></_>
        <_>
          <internalNodes>
            0 -1 90 1.5652474015951157e-002</internalNodes>
          <leafValues>
            9.3290917575359344e-002 -3.3153718709945679e-001</leafValues></_>
        <_>
          <internalNodes>
            0 -1 57 4.7595300711691380e-003</internalNodes>
          <leafValues>
            -2.5611618161201477e-001 1.0855489969253540e-001</leafValues></_>
        <_>
          <internalNodes>
            0 -1 140 3.9123885333538055e-002</internalNodes>
          <leafValues>
            -3.2333430647850037e-001 1.0228238999843597e-001</leafValues></_>
        <_>
          <internalNodes>
            0 -1 222 2.0270755514502525e-002</internalNodes>
          <leafValues>
            -1.6812577843666077e-001 1.5751831233501434e-001</leafValues></_>
        <_>
          <internalNodes>
            0 -1 261 2.6965592056512833e-002</internalNodes>
          <leafValues>
            4.6329170465469360e-002 -6.2044578790664673e-001</leafValues></_>
        <_>
          <internalNodes>
            0 -1 4 5.5279377847909927e-002</internalNodes>
          <leafValues>
            7.7973932027816772e-002 -3.2651561498641968e-001</leafValues></_>
        <_>
          <internalNodes>
            0 -1 256 5.1463423296809196e-003</internalNodes>
          <leafValues>
            2.6505169272422791e-001 -1.0318761318922043e-001</leafValues></_>
        <_>
          <internalNodes>
            0 -1 235 2.4594353511929512e-002</internalNodes>
          <leafValues>
            2.6796972751617432e-001 -1.0813151299953461e-001</leafValues></_>
        <_>
          <internalNodes>
            0 -1 270 1.2659199535846710e-001</internalNodes>
          <leafValues>
            2.9942702502012253e-002 -8.8034850358963013e-001</leafValues></_>
        <_>
          <internalNodes>
            0 -1 92 5.2477113902568817e-002</internalNodes>
          <leafValues>
            1.5463650226593018e-002 -9.1473209857940674e-001</leafValues></_>
        <_>
          <internalNodes>
            0 -1 34 1.1055141687393188e-001</internalNodes>
          <leafValues>
            1.9868280738592148e-002 -8.6665838956832886e-001</leafValues></_>
        <_>
          <internalNodes>
            0 -1 189 2.0485544577240944e-002</internalNodes>
          <leafValues>
            9.3919686973094940e-002 -2.3662866652011871e-001</leafValues></_></weakClassifiers></_>
    <!-- stage 5 -->
    <_>
      <maxWeakCount>67</maxWeakCount>
      <stageThreshold>-2.0740823745727539e+000</stageThreshold>
      <weakClassifiers>
        <_>
          <internalNodes>
            0 -1 177 7.0701174437999725e-002</internalNodes>
          <leafValues>
            -6.6917753219604492e-001 -1.4442649483680725e-001</leafValues></_>
        <_>
          <internalNodes>
            0 -1 92 7.7533461153507233e-003</internalNodes>
          <leafValues>
            1.2360550463199615e-001 -4.4941616058349609e-001</leafValues></_>
        <_>
          <internalNodes>
            0 -1 63 1.6933549195528030e-002</internalNodes>
          <leafValues>
            -3.0312696099281311e-001 1.4439630508422852e-001</leafValues></_>
        <_>
          <internalNodes>
            0 -1 119 4.4248301535844803e-002</internalNodes>
          <leafValues>
            -2.1146011352539063e-001 2.1412314474582672e-001</leafValues></_>
        <_>
          <internalNodes>
            0 -1 253 1.0631877928972244e-002</internalNodes>
          <leafValues>
            -4.5068949460983276e-001 1.1558618396520615e-001</leafValues></_>
        <_>
          <internalNodes>
            0 -1 184 3.0632697045803070e-002</internalNodes>
          <leafValues>
            -2.8305760025978088e-001 1.5646174550056458e-001</leafValues></_>
        <_>
          <internalNodes>
            0 -1 169 7.6815873384475708e-002</internalNodes>
          <leafValues>
            -2.0007874071598053e-001 2.1341754496097565e-001</leafValues></_>
        <_>
          <internalNodes>
            0 -1 222 1.2503547593951225e-002</internalNodes>
          <leafValues>
            -3.5947749018669128e-001 1.4650797843933105e-001</leafValues></_>
        <_>
          <internalNodes>
            0 -1 4 6.4503028988838196e-002</internalNodes>
          <leafValues>
            7.2964154183864594e-002 -5.4208099842071533e-001</leafValues></_>
        <_>
          <internalNodes>
            0 -1 77 2.1006049588322639e-002</internalNodes>
          <leafValues>
            8.7177321314811707e-002 -3.6595508456230164e-001</leafValues></_>
        <_>
          <internalNodes>
            0 -1 130 3.6691777408123016e-002</internalNodes>
          <leafValues>
            7.6094642281532288e-002 -4.3152189254760742e-001</leafValues></_>
        <_>
          <internalNodes>
            0 -1 66 7.0490636862814426e-003</internalNodes>
          <leafValues>
            -4.3480086326599121e-001 9.2654563486576080e-002</leafValues></_>
        <_>
          <internalNodes>
            0 -1 179 2.5292076170444489e-002</internalNodes>
          <leafValues>
            6.8072594702243805e-002 -4.4346773624420166e-001</leafValues></_>
        <_>
          <internalNodes>
            0 -1 235 9.6909321844577789e-002</internalNodes>
          <leafValues>
            5.9895303100347519e-002 -4.7471737861633301e-001</leafValues></_>
        <_>
          <internalNodes>
            0 -1 114 2.6324696838855743e-002</internalNodes>
          <leafValues>
            -4.5445856451988220e-001 6.9587796926498413e-002</leafValues></_>
        <_>
          <internalNodes>
            0 -1 177 2.7186252176761627e-002</internalNodes>
          <leafValues>
            -2.8525117039680481e-001 8.4798164665699005e-002</leafValues></_>
        <_>
          <internalNodes>
            0 -1 29 2.0069818943738937e-002</internalNodes>
          <leafValues>
            -2.2065354883670807e-001 1.5155501663684845e-001</leafValues></_>
        <_>
          <internalNodes>
            0 -1 166 8.2437545061111450e-003</internalNodes>
          <leafValues>
            1.2922863662242889e-001 -2.1088071167469025e-001</leafValues></_>
        <_>
          <internalNodes>
            0 -1 93 5.8134552091360092e-003</internalNodes>
          <leafValues>
            -3.7793242931365967e-001 7.1622535586357117e-002</leafValues></_>
        <_>
          <internalNodes>
            0 -1 105 1.6684224829077721e-002</internalNodes>
          <leafValues>
            -4.1903674602508545e-001 5.8855973184108734e-002</leafValues></_>
        <_>
          <internalNodes>
            0 -1 190 2.0027112215757370e-002</internalNodes>
          <leafValues>
            1.1512260138988495e-001 -2.1242158114910126e-001</leafValues></_>
        <_>
          <internalNodes>
            0 -1 126 1.3870680704712868e-002</internalNodes>
          <leafValues>
            -5.1430362462997437e-001 4.0925130248069763e-002</leafValues></_>
        <_>
          <internalNodes>
            0 -1 202 5.3793890401721001e-003</internalNodes>
          <leafValues>
            -4.3666654825210571e-001 4.9878597259521484e-002</leafValues></_>
        <_>
          <internalNodes>
            0 -1 48 3.0731838196516037e-002</internalNodes>
          <leafValues>
            -9.9166907370090485e-002 2.1771956980228424e-001</leafValues></_>
        <_>
          <internalNodes>
            0 -1 70 1.3363881036639214e-002</internalNodes>
          <leafValues>
            -6.9671732187271118e-001 3.7752453237771988e-002</leafValues></_>
        <_>
          <internalNodes>
            0 -1 180 6.4741978421807289e-003</internalNodes>
          <leafValues>
            1.3917958736419678e-001 -1.5553164482116699e-001</leafValues></_>
        <_>
          <internalNodes>
            0 -1 44 4.8910579644143581e-003</internalNodes>
          <leafValues>
            -3.0815634131431580e-001 8.3014652132987976e-002</leafValues></_>
        <_>
          <internalNodes>
            0 -1 173 3.1569100916385651e-002</internalNodes>
          <leafValues>
            4.4274520128965378e-002 -4.2655792832374573e-001</leafValues></_>
        <_>
          <internalNodes>
            0 -1 266 3.9781685918569565e-002</internalNodes>
          <leafValues>
            1.2954840064048767e-001 -1.7481192946434021e-001</leafValues></_>
        <_>
          <internalNodes>
            0 -1 169 3.3709362149238586e-002</internalNodes>
          <leafValues>
            -2.8021419048309326e-001 8.6851954460144043e-002</leafValues></_>
        <_>
          <internalNodes>
            0 -1 77 2.8667231090366840e-003</internalNodes>
          <leafValues>
            3.2943144440650940e-001 -8.2126848399639130e-002</leafValues></_>
        <_>
          <internalNodes>
            0 -1 208 7.4429944157600403e-002</internalNodes>
          <leafValues>
            4.7039799392223358e-002 -5.4211622476577759e-001</leafValues></_>
        <_>
          <internalNodes>
            0 -1 28 2.1185915917158127e-002</internalNodes>
          <leafValues>
            -1.4807282388210297e-001 1.2886486947536469e-001</leafValues></_>
        <_>
          <internalNodes>
            0 -1 209 2.1577456966042519e-002</internalNodes>
          <leafValues>
            8.8468611240386963e-002 -2.1890705823898315e-001</leafValues></_>
        <_>
          <internalNodes>
            0 -1 195 4.1023297235369682e-003</internalNodes>
          <leafValues>
            -5.4731506109237671e-001 3.6716390401124954e-002</leafValues></_>
        <_>
          <internalNodes>
            0 -1 270 1.1701321601867676e-001</internalNodes>
          <leafValues>
            1.8508981913328171e-002 -7.9963290691375732e-001</leafValues></_>
        <_>
          <internalNodes>
            0 -1 5 2.3603219538927078e-002</internalNodes>
          <leafValues>
            8.4331668913364410e-002 -2.0806330442428589e-001</leafValues></_>
        <_>
          <internalNodes>
            0 -1 57 9.2570781707763672e-003</internalNodes>
          <leafValues>
            -1.3863304257392883e-001 1.2314560264348984e-001</leafValues></_>
        <_>
          <internalNodes>
            0 -1 254 3.0834432691335678e-002</internalNodes>
          <leafValues>
            2.7741789817810059e-002 -6.8472021818161011e-001</leafValues></_>
        <_>
          <internalNodes>
            0 -1 267 1.1061245575547218e-002</internalNodes>
          <leafValues>
            1.1392954736948013e-001 -1.4596989750862122e-001</leafValues></_>
        <_>
          <internalNodes>
            0 -1 78 9.4304159283638000e-002</internalNodes>
          <leafValues>
            4.8920419067144394e-002 -3.9355620741844177e-001</leafValues></_>
        <_>
          <internalNodes>
            0 -1 183 3.6005381494760513e-002</internalNodes>
          <leafValues>
            3.4962303936481476e-002 -4.1465684771537781e-001</leafValues></_>
        <_>
          <internalNodes>
            0 -1 87 9.1575905680656433e-002</internalNodes>
          <leafValues>
            -7.9347126185894012e-002 2.0608417689800262e-001</leafValues></_>
        <_>
          <internalNodes>
            0 -1 106 8.8244332000613213e-003</internalNodes>
          <leafValues>
            -3.3275404572486877e-001 5.8586608618497849e-002</leafValues></_>
        <_>
          <internalNodes>
            0 -1 189 1.5386391431093216e-002</internalNodes>
          <leafValues>
            1.0565620660781860e-001 -1.4979219436645508e-001</leafValues></_>
        <_>
          <internalNodes>
            0 -1 191 6.7190960049629211e-002</internalNodes>
          <leafValues>
            3.5797644406557083e-002 -4.5245364308357239e-001</leafValues></_>
        <_>
          <internalNodes>
            0 -1 244 4.3603904545307159e-002</internalNodes>
          <leafValues>
            2.3391228169202805e-002 -5.8367449045181274e-001</leafValues></_>
        <_>
          <internalNodes>
            0 -1 29 2.9788808897137642e-003</internalNodes>
          <leafValues>
            -6.7214828729629517e-001 2.0422097295522690e-002</leafValues></_>
        <_>
          <internalNodes>
            0 -1 167 1.7834872007369995e-002</internalNodes>
          <leafValues>
            7.2067067027091980e-002 -2.0779106020927429e-001</leafValues></_>
        <_>
          <internalNodes>
            0 -1 266 1.0715518891811371e-001</internalNodes>
          <leafValues>
            4.3197304010391235e-002 -3.9395025372505188e-001</leafValues></_>
        <_>
          <internalNodes>
            0 -1 217 3.1690675765275955e-002</internalNodes>
          <leafValues>
            5.3180526942014694e-002 -2.6107615232467651e-001</leafValues></_>
        <_>
          <internalNodes>
            0 -1 247 1.2460025027394295e-002</internalNodes>
          <leafValues>
            -1.7228719592094421e-001 8.8844336569309235e-002</leafValues></_>
        <_>
          <internalNodes>
            0 -1 236 4.6299014240503311e-002</internalNodes>
          <leafValues>
            2.1184694021940231e-002 -6.1750936508178711e-001</leafValues></_>
        <_>
          <internalNodes>
            0 -1 258 1.0702572762966156e-001</internalNodes>
          <leafValues>
            -7.0600412786006927e-002 2.1236041188240051e-001</leafValues></_>
        <_>
          <internalNodes>
            0 -1 27 3.3883843570947647e-003</internalNodes>
          <leafValues>
            -5.1406931877136230e-001 3.1045150011777878e-002</leafValues></_>
        <_>
          <internalNodes>
            0 -1 96 2.8265580534934998e-002</internalNodes>
          <leafValues>
            -1.7363420128822327e-001 8.9397192001342773e-002</leafValues></_>
        <_>
          <internalNodes>
            0 -1 252 1.2112992815673351e-002</internalNodes>
          <leafValues>
            -2.1482421457767487e-001 6.5927162766456604e-002</leafValues></_>
        <_>
          <internalNodes>
            0 -1 137 2.0023304969072342e-002</internalNodes>
          <leafValues>
            1.1576549708843231e-001 -1.4013031125068665e-001</leafValues></_>
        <_>
          <internalNodes>
            0 -1 264 4.3262537568807602e-002</internalNodes>
          <leafValues>
            -5.1214214414358139e-002 3.0555781722068787e-001</leafValues></_>
        <_>
          <internalNodes>
            0 -1 154 1.3589546084403992e-001</internalNodes>
          <leafValues>
            -4.1701663285493851e-002 3.7303429841995239e-001</leafValues></_>
        <_>
          <internalNodes>
            0 -1 145 1.2275738641619682e-002</internalNodes>
          <leafValues>
            -5.5299079418182373e-001 2.6721276342868805e-002</leafValues></_>
        <_>
          <internalNodes>
            0 -1 240 1.8323162198066711e-001</internalNodes>
          <leafValues>
            -2.9253195971250534e-002 5.2037423849105835e-001</leafValues></_>
        <_>
          <internalNodes>
            0 -1 52 2.1154787391424179e-002</internalNodes>
          <leafValues>
            -5.9354856610298157e-002 2.5228482484817505e-001</leafValues></_>
        <_>
          <internalNodes>
            0 -1 85 2.3623049259185791e-002</internalNodes>
          <leafValues>
            3.4482724964618683e-002 -3.6804932355880737e-001</leafValues></_>
        <_>
          <internalNodes>
            0 -1 234 1.3248145580291748e-001</internalNodes>
          <leafValues>
            2.2662883624434471e-002 -5.2809429168701172e-001</leafValues></_>
        <_>
          <internalNodes>
            0 -1 83 1.0728529095649719e-001</internalNodes>
          <leafValues>
            1.4668630436062813e-002 -6.4671969413757324e-001</leafValues></_>
        <_>
          <internalNodes>
            0 -1 147 2.9729757457971573e-002</internalNodes>
          <leafValues>
            3.1819351017475128e-002 -3.4951016306877136e-001</leafValues></_></weakClassifiers></_>
    <!-- stage 6 -->
    <_>
      <maxWeakCount>100</maxWeakCount>
      <stageThreshold>-1.9400899410247803e+000</stageThreshold>
      <weakClassifiers>
        <_>
          <internalNodes>
            0 -1 92 1.2953421100974083e-003</internalNodes>
          <leafValues>
            -1.4577038586139679e-001 -6.3492518663406372e-001</leafValues></_>
        <_>
          <internalNodes>
            0 -1 177 8.6053118109703064e-002</internalNodes>
          <leafValues>
            -2.3803274333477020e-001 2.5268554687500000e-001</leafValues></_>
        <_>
          <internalNodes>
            0 -1 78 6.2865749001502991e-002</internalNodes>
          <leafValues>
            1.1721838265657425e-001 -3.8448056578636169e-001</leafValues></_>
        <_>
          <internalNodes>
            0 -1 198 5.8452654629945755e-002</internalNodes>
          <leafValues>
            -1.5970312058925629e-001 2.4948754906654358e-001</leafValues></_>
        <_>
          <internalNodes>
            0 -1 79 4.2838364839553833e-002</internalNodes>
          <leafValues>
            -2.7107915282249451e-001 1.7332524061203003e-001</leafValues></_>
        <_>
          <internalNodes>
            0 -1 266 2.6961624622344971e-002</internalNodes>
          <leafValues>
            2.0379130542278290e-001 -1.9403287768363953e-001</leafValues></_>
        <_>
          <internalNodes>
            0 -1 28 1.3706915080547333e-002</internalNodes>
          <leafValues>
            -2.5932997465133667e-001 1.4246115088462830e-001</leafValues></_>
        <_>
          <internalNodes>
            0 -1 85 2.1493448875844479e-003</internalNodes>
          <leafValues>
            2.3147119581699371e-001 -1.4728710055351257e-001</leafValues></_>
        <_>
          <internalNodes>
            0 -1 252 6.8765375763177872e-003</internalNodes>
          <leafValues>
            -4.3736085295677185e-001 9.7504094243049622e-002</leafValues></_>
        <_>
          <internalNodes>
            0 -1 12 2.2572858259081841e-002</internalNodes>
          <leafValues>
            -3.9968478679656982e-001 5.7715836912393570e-002</leafValues></_>
        <_>
          <internalNodes>
            0 -1 180 2.1948982030153275e-002</internalNodes>
          <leafValues>
            6.5506644546985626e-002 -4.8581644892692566e-001</leafValues></_>
        <_>
          <internalNodes>
            0 -1 48 6.5381219610571861e-003</internalNodes>
          <leafValues>
            -4.2368224263191223e-001 6.0405679047107697e-002</leafValues></_>
        <_>
          <internalNodes>
            0 -1 77 1.5511373989284039e-002</internalNodes>
          <leafValues>
            1.0330224782228470e-001 -2.3947945237159729e-001</leafValues></_>
        <_>
          <internalNodes>
            0 -1 177 3.5670205950737000e-002</internalNodes>
          <leafValues>
            -2.5034329295158386e-001 1.0756602138280869e-001</leafValues></_>
        <_>
          <internalNodes>
            0 -1 222 1.1119347065687180e-002</internalNodes>
          <leafValues>
            -3.2658457756042480e-001 7.9250909388065338e-002</leafValues></_>
        <_>
          <internalNodes>
            0 -1 58 1.1107480153441429e-002</internalNodes>
          <leafValues>
            -2.5540322065353394e-001 7.7247001230716705e-002</leafValues></_>
        <_>
          <internalNodes>
            0 -1 25 5.8583106845617294e-002</internalNodes>
          <leafValues>
            -1.5800480544567108e-001 1.6277667880058289e-001</leafValues></_>
        <_>
          <internalNodes>
            0 -1 247 1.7222763970494270e-002</internalNodes>
          <leafValues>
            -1.6969574987888336e-001 1.3948407769203186e-001</leafValues></_>
        <_>
          <internalNodes>
            0 -1 96 7.5146700255572796e-003</internalNodes>
          <leafValues>
            -6.3946908712387085e-001 3.1520798802375793e-002</leafValues></_>
        <_>
          <internalNodes>
            0 -1 92 2.8490006923675537e-002</internalNodes>
          <leafValues>
            2.9508790001273155e-002 -4.7062125802040100e-001</leafValues></_>
        <_>
          <internalNodes>
            0 -1 143 6.3166655600070953e-003</internalNodes>
          <leafValues>
            -2.0456856489181519e-001 1.0014089941978455e-001</leafValues></_>
        <_>
          <internalNodes>
            0 -1 76 1.3461040332913399e-002</internalNodes>
          <leafValues>
            8.1454165279865265e-002 -2.1424451470375061e-001</leafValues></_>
        <_>
          <internalNodes>
            0 -1 130 4.3435912579298019e-002</internalNodes>
          <leafValues>
            4.6732030808925629e-002 -4.0248924493789673e-001</leafValues></_>
        <_>
          <internalNodes>
            0 -1 266 9.1344304382801056e-002</internalNodes>
          <leafValues>
            5.0920028239488602e-002 -3.7328991293907166e-001</leafValues></_>
        <_>
          <internalNodes>
            0 -1 5 1.9048281013965607e-002</internalNodes>
          <leafValues>
            1.0543802380561829e-001 -1.7959426343441010e-001</leafValues></_>
        <_>
          <internalNodes>
            0 -1 0 5.7733124122023582e-003</internalNodes>
          <leafValues>
            -4.0281775593757629e-001 5.1249571144580841e-002</leafValues></_>
        <_>
          <internalNodes>
            0 -1 258 6.2799736857414246e-002</internalNodes>
          <leafValues>
            -1.4257684350013733e-001 1.2871599197387695e-001</leafValues></_>
        <_>
          <internalNodes>
            0 -1 106 2.2187646478414536e-002</internalNodes>
          <leafValues>
            -1.4138904213905334e-001 1.3332782685756683e-001</leafValues></_>
        <_>
          <internalNodes>
            0 -1 179 1.2668034993112087e-002</internalNodes>
          <leafValues>
            1.1487337946891785e-001 -1.8107119202613831e-001</leafValues></_>
        <_>
          <internalNodes>
            0 -1 231 1.2840593233704567e-002</internalNodes>
          <leafValues>
            -1.6331286728382111e-001 1.1497505754232407e-001</leafValues></_>
        <_>
          <internalNodes>
            0 -1 205 1.7951555550098419e-002</internalNodes>
          <leafValues>
            -3.4706696867942810e-001 5.6038431823253632e-002</leafValues></_>
        <_>
          <internalNodes>
            0 -1 30 1.0443398728966713e-002</internalNodes>
          <leafValues>
            -4.5894280076026917e-001 3.3466100692749023e-002</leafValues></_>
        <_>
          <internalNodes>
            0 -1 184 4.9738060683012009e-002</internalNodes>
          <leafValues>
            -9.9595345556735992e-002 1.5899387001991272e-001</leafValues></_>
        <_>
          <internalNodes>
            0 -1 3 1.0964453220367432e-001</internalNodes>
          <leafValues>
            2.3463701829314232e-002 -7.3323565721511841e-001</leafValues></_>
        <_>
          <internalNodes>
            0 -1 219 9.5074012875556946e-002</internalNodes>
          <leafValues>
            2.3283332586288452e-002 -5.7206773757934570e-001</leafValues></_>
        <_>
          <internalNodes>
            0 -1 83 8.9059248566627502e-002</internalNodes>
          <leafValues>
            2.0383229479193687e-002 -6.5579682588577271e-001</leafValues></_>
        <_>
          <internalNodes>
            0 -1 268 1.6304276650771499e-003</internalNodes>
          <leafValues>
            2.2943638265132904e-001 -6.4305543899536133e-002</leafValues></_>
        <_>
          <internalNodes>
            0 -1 265 1.5381136536598206e-001</internalNodes>
          <leafValues>
            2.4104015901684761e-002 -6.9254910945892334e-001</leafValues></_>
        <_>
          <internalNodes>
            0 -1 4 8.2997351884841919e-002</internalNodes>
          <leafValues>
            2.8214422985911369e-002 -4.5725750923156738e-001</leafValues></_>
        <_>
          <internalNodes>
            0 -1 48 4.6242691576480865e-002</internalNodes>
          <leafValues>
            -4.9148298799991608e-002 2.9495313763618469e-001</leafValues></_>
        <_>
          <internalNodes>
            0 -1 257 9.0786069631576538e-002</internalNodes>
          <leafValues>
            -7.6911464333534241e-002 2.0367418229579926e-001</leafValues></_>
        <_>
          <internalNodes>
            0 -1 103 3.1822524964809418e-002</internalNodes>
          <leafValues>
            5.6483261287212372e-002 -2.7794104814529419e-001</leafValues></_>
        <_>
          <internalNodes>
            0 -1 79 1.9106426835060120e-001</internalNodes>
          <leafValues>
            1.6994973644614220e-002 -7.1945643424987793e-001</leafValues></_>
        <_>
          <internalNodes>
            0 -1 206 9.8754428327083588e-002</internalNodes>
          <leafValues>
            2.6570769026875496e-002 -4.2779189348220825e-001</leafValues></_>
        <_>
          <internalNodes>
            0 -1 99 2.0747054368257523e-002</internalNodes>
          <leafValues>
            7.6875992119312286e-002 -1.8037682771682739e-001</leafValues></_>
        <_>
          <internalNodes>
            0 -1 224 7.7918112277984619e-002</internalNodes>
          <leafValues>
            2.9626669362187386e-002 -4.6358963847160339e-001</leafValues></_>
        <_>
          <internalNodes>
            0 -1 78 2.5345617905259132e-002</internalNodes>
          <leafValues>
            1.3633474707603455e-001 -9.8313838243484497e-002</leafValues></_>
        <_>
          <internalNodes>
            0 -1 181 8.5735283792018890e-003</internalNodes>
          <leafValues>
            8.9115560054779053e-002 -1.2720130383968353e-001</leafValues></_>
        <_>
          <internalNodes>
            0 -1 238 9.5747932791709900e-003</internalNodes>
          <leafValues>
            -2.1104592084884644e-001 7.7233612537384033e-002</leafValues></_>
        <_>
          <internalNodes>
            0 -1 270 1.0185426101088524e-002</internalNodes>
          <leafValues>
            1.4440505206584930e-001 -1.1576747894287109e-001</leafValues></_>
        <_>
          <internalNodes>
            0 -1 238 2.4910815060138702e-002</internalNodes>
          <leafValues>
            -1.0825817286968231e-001 1.4496770501136780e-001</leafValues></_>
        <_>
          <internalNodes>
            0 -1 95 1.7230773344635963e-002</internalNodes>
          <leafValues>
            -1.5218791365623474e-001 8.7532609701156616e-002</leafValues></_>
        <_>
          <internalNodes>
            0 -1 240 2.1726146340370178e-001</internalNodes>
          <leafValues>
            -1.8845591694116592e-002 6.2637126445770264e-001</leafValues></_>
        <_>
          <internalNodes>
            0 -1 140 4.3127194046974182e-002</internalNodes>
          <leafValues>
            -1.8686491250991821e-001 6.9483436644077301e-002</leafValues></_>
        <_>
          <internalNodes>
            0 -1 56 1.3810727745294571e-002</internalNodes>
          <leafValues>
            -9.8441325128078461e-002 1.7262044548988342e-001</leafValues></_>
        <_>
          <internalNodes>
            0 -1 221 1.1752193793654442e-002</internalNodes>
          <leafValues>
            -2.2493353486061096e-001 5.1148865371942520e-002</leafValues></_>
        <_>
          <internalNodes>
            0 -1 236 3.2121427357196808e-002</internalNodes>
          <leafValues>
            4.0552768856287003e-002 -2.9107171297073364e-001</leafValues></_>
        <_>
          <internalNodes>
            0 -1 270 1.1066792905330658e-001</internalNodes>
          <leafValues>
            1.5645323321223259e-002 -6.7054086923599243e-001</leafValues></_>
        <_>
          <internalNodes>
            0 -1 71 2.0775252580642700e-001</internalNodes>
          <leafValues>
            -2.0353592932224274e-002 6.0804378986358643e-001</leafValues></_>
        <_>
          <internalNodes>
            0 -1 177 8.9167784899473190e-003</internalNodes>
          <leafValues>
            -4.2443647980690002e-001 2.8266198933124542e-002</leafValues></_>
        <_>
          <internalNodes>
            0 -1 195 1.3964652083814144e-002</internalNodes>
          <leafValues>
            -1.6427651047706604e-001 6.6358953714370728e-002</leafValues></_>
        <_>
          <internalNodes>
            0 -1 86 1.0366173461079597e-002</internalNodes>
          <leafValues>
            1.1561792343854904e-001 -1.0573189705610275e-001</leafValues></_>
        <_>
          <internalNodes>
            0 -1 266 5.5339887738227844e-002</internalNodes>
          <leafValues>
            7.1534775197505951e-002 -1.7258979380130768e-001</leafValues></_>
        <_>
          <internalNodes>
            0 -1 217 1.3423724099993706e-002</internalNodes>
          <leafValues>
            1.4230388402938843e-001 -8.9266806840896606e-002</leafValues></_>
        <_>
          <internalNodes>
            0 -1 228 6.7150047980248928e-003</internalNodes>
          <leafValues>
            -1.3329418003559113e-001 7.1639589965343475e-002</leafValues></_>
        <_>
          <internalNodes>
            0 -1 172 1.1730862781405449e-002</internalNodes>
          <leafValues>
            7.8041687607765198e-002 -1.5912833809852600e-001</leafValues></_>
        <_>
          <internalNodes>
            0 -1 184 2.1402403712272644e-002</internalNodes>
          <leafValues>
            -2.1467217803001404e-001 5.0199691206216812e-002</leafValues></_>
        <_>
          <internalNodes>
            0 -1 100 4.7461621463298798e-002</internalNodes>
          <leafValues>
            -5.1418535411357880e-002 2.4824565649032593e-001</leafValues></_>
        <_>
          <internalNodes>
            0 -1 130 1.8121656030416489e-002</internalNodes>
          <leafValues>
            9.9046677350997925e-002 -1.0638536512851715e-001</leafValues></_>
        <_>
          <internalNodes>
            0 -1 66 2.2628188598901033e-003</internalNodes>
          <leafValues>
            -4.1943818330764771e-001 2.4785285815596581e-002</leafValues></_>
        <_>
          <internalNodes>
            0 -1 22 1.1149439215660095e-001</internalNodes>
          <leafValues>
            1.0786473751068115e-002 -8.3083742856979370e-001</leafValues></_>
        <_>
          <internalNodes>
            0 -1 196 1.6169730573892593e-002</internalNodes>
          <leafValues>
            -1.6149306297302246e-001 6.1615746468305588e-002</leafValues></_>
        <_>
          <internalNodes>
            0 -1 185 7.1921795606613159e-002</internalNodes>
          <leafValues>
            -5.0386443734169006e-002 1.9278860092163086e-001</leafValues></_>
        <_>
          <internalNodes>
            0 -1 97 3.7136375904083252e-002</internalNodes>
          <leafValues>
            9.8086118698120117e-002 -1.0453145205974579e-001</leafValues></_>
        <_>
          <internalNodes>
            0 -1 73 5.2370034158229828e-002</internalNodes>
          <leafValues>
            1.2543711811304092e-002 -7.0459651947021484e-001</leafValues></_>
        <_>
          <internalNodes>
            0 -1 78 1.1834043264389038e-001</internalNodes>
          <leafValues>
            2.1696310490369797e-002 -3.9219981431961060e-001</leafValues></_>
        <_>
          <internalNodes>
            0 -1 234 3.5483434796333313e-002</internalNodes>
          <leafValues>
            -1.2597407400608063e-001 7.4956499040126801e-002</leafValues></_>
        <_>
          <internalNodes>
            0 -1 252 2.9373515397310257e-002</internalNodes>
          <leafValues>
            -7.2716221213340759e-002 1.4517596364021301e-001</leafValues></_>
        <_>
          <internalNodes>
            0 -1 266 1.3350260443985462e-002</internalNodes>
          <leafValues>
            2.1999287605285645e-001 -4.0101613849401474e-002</leafValues></_>
        <_>
          <internalNodes>
            0 -1 258 1.1032089591026306e-001</internalNodes>
          <leafValues>
            -5.8573883026838303e-002 1.9002361595630646e-001</leafValues></_>
        <_>
          <internalNodes>
            0 -1 70 1.3996765017509460e-002</internalNodes>
          <leafValues>
            -4.5795863866806030e-001 1.9950188696384430e-002</leafValues></_>
        <_>
          <internalNodes>
            0 -1 28 3.6348406225442886e-002</internalNodes>
          <leafValues>
            -5.5665593594312668e-002 1.7180070281028748e-001</leafValues></_>
        <_>
          <internalNodes>
            0 -1 163 4.1089683771133423e-002</internalNodes>
          <leafValues>
            2.9526339843869209e-002 -3.2060873508453369e-001</leafValues></_>
        <_>
          <internalNodes>
            0 -1 56 3.8718890864402056e-003</internalNodes>
          <leafValues>
            -1.5606899559497833e-001 5.7917378842830658e-002</leafValues></_>
        <_>
          <internalNodes>
            0 -1 174 1.7774643376469612e-002</internalNodes>
          <leafValues>
            5.8392778038978577e-002 -1.9717729091644287e-001</leafValues></_>
        <_>
          <internalNodes>
            0 -1 231 2.8852205723524094e-002</internalNodes>
          <leafValues>
            -5.9853788465261459e-002 1.7589834332466125e-001</leafValues></_>
        <_>
          <internalNodes>
            0 -1 166 2.4609439074993134e-002</internalNodes>
          <leafValues>
            2.8984326869249344e-002 -3.4505504369735718e-001</leafValues></_>
        <_>
          <internalNodes>
            0 -1 188 5.3911633789539337e-002</internalNodes>
          <leafValues>
            1.4640597626566887e-002 -5.9235614538192749e-001</leafValues></_>
        <_>
          <internalNodes>
            0 -1 0 6.9646129850298166e-004</internalNodes>
          <leafValues>
            -8.2838016748428345e-001 8.7400497868657112e-003</leafValues></_>
        <_>
          <internalNodes>
            0 -1 112 1.4180839061737061e-002</internalNodes>
          <leafValues>
            1.3376851379871368e-001 -6.7591905593872070e-002</leafValues></_>
        <_>
          <internalNodes>
            0 -1 139 6.2240078113973141e-003</internalNodes>
          <leafValues>
            -1.4566731452941895e-001 6.7493982613086700e-002</leafValues></_>
        <_>
          <internalNodes>
            0 -1 111 1.6250260174274445e-002</internalNodes>
          <leafValues>
            9.7491458058357239e-002 -1.0985173285007477e-001</leafValues></_>
        <_>
          <internalNodes>
            0 -1 176 3.4017834812402725e-002</internalNodes>
          <leafValues>
            -4.8199012875556946e-002 1.8694430589675903e-001</leafValues></_>
        <_>
          <internalNodes>
            0 -1 263 1.1697279289364815e-002</internalNodes>
          <leafValues>
            1.0046582669019699e-001 -9.9279113113880157e-002</leafValues></_>
        <_>
          <internalNodes>
            0 -1 77 3.4707799553871155e-002</internalNodes>
          <leafValues>
            2.5879599153995514e-002 -3.4566736221313477e-001</leafValues></_>
        <_>
          <internalNodes>
            0 -1 257 1.2178835272789001e-001</internalNodes>
          <leafValues>
            -4.1355423629283905e-002 2.3075249791145325e-001</leafValues></_>
        <_>
          <internalNodes>
            0 -1 64 1.2000076472759247e-002</internalNodes>
          <leafValues>
            -1.4789491891860962e-001 6.7042738199234009e-002</leafValues></_>
        <_>
          <internalNodes>
            0 -1 33 3.1963352113962173e-002</internalNodes>
          <leafValues>
            4.4947702437639236e-002 -2.2225892543792725e-001</leafValues></_>
        <_>
          <internalNodes>
            0 -1 104 8.0115161836147308e-002</internalNodes>
          <leafValues>
            2.5327522307634354e-002 -3.5864409804344177e-001</leafValues></_>
        <_>
          <internalNodes>
            0 -1 79 1.3525962829589844e-001</internalNodes>
          <leafValues>
            2.7526773512363434e-002 -3.2475718855857849e-001</leafValues></_></weakClassifiers></_>
    <!-- stage 7 -->
    <_>
      <maxWeakCount>100</maxWeakCount>
      <stageThreshold>-1.9328702688217163e+000</stageThreshold>
      <weakClassifiers>
        <_>
          <internalNodes>
            0 -1 166 2.3000305518507957e-003</internalNodes>
          <leafValues>
            -1.9477525353431702e-001 -6.1354863643646240e-001</leafValues></_>
        <_>
          <internalNodes>
            0 -1 177 5.0389606505632401e-002</internalNodes>
          <leafValues>
            -3.5051098465919495e-001 1.1789549142122269e-001</leafValues></_>
        <_>
          <internalNodes>
            0 -1 241 3.9753504097461700e-002</internalNodes>
          <leafValues>
            -3.6516669392585754e-001 1.1243686079978943e-001</leafValues></_>
        <_>
          <internalNodes>
            0 -1 169 8.2368291914463043e-002</internalNodes>
          <leafValues>
            -1.1651648581027985e-001 2.2377030551433563e-001</leafValues></_>
        <_>
          <internalNodes>
            0 -1 266 4.1169367730617523e-002</internalNodes>
          <leafValues>
            1.7165561020374298e-001 -2.4163763225078583e-001</leafValues></_>
        <_>
          <internalNodes>
            0 -1 160 2.8225963935256004e-002</internalNodes>
          <leafValues>
            -3.4414377808570862e-001 7.4696697294712067e-002</leafValues></_>
        <_>
          <internalNodes>
            0 -1 253 8.5021425038576126e-003</internalNodes>
          <leafValues>
            -4.0137073397636414e-001 7.9608403146266937e-002</leafValues></_>
        <_>
          <internalNodes>
            0 -1 96 2.2873435169458389e-002</internalNodes>
          <leafValues>
            -3.0620971322059631e-001 6.9998934864997864e-002</leafValues></_>
        <_>
          <internalNodes>
            0 -1 182 1.2563997879624367e-002</internalNodes>
          <leafValues>
            1.1330388486385345e-001 -2.2176194190979004e-001</leafValues></_>
        <_>
          <internalNodes>
            0 -1 222 2.2864598780870438e-002</internalNodes>
          <leafValues>
            -1.5100221335887909e-001 1.7128501832485199e-001</leafValues></_>
        <_>
          <internalNodes>
            0 -1 50 1.4031924307346344e-002</internalNodes>
          <leafValues>
            -1.5535300970077515e-001 1.5225367248058319e-001</leafValues></_>
        <_>
          <internalNodes>
            0 -1 167 2.1979188546538353e-002</internalNodes>
          <leafValues>
            7.1225263178348541e-002 -3.5127863287925720e-001</leafValues></_>
        <_>
          <internalNodes>
            0 -1 43 2.4483468383550644e-002</internalNodes>
          <leafValues>
            7.1870952844619751e-002 -2.7679395675659180e-001</leafValues></_>
        <_>
          <internalNodes>
            0 -1 155 4.9665574915707111e-003</internalNodes>
          <leafValues>
            -5.1786106824874878e-001 3.7291005253791809e-002</leafValues></_>
        <_>
          <internalNodes>
            0 -1 172 2.2223036736249924e-002</internalNodes>
          <leafValues>
            5.0344832241535187e-002 -3.8733819127082825e-001</leafValues></_>
        <_>
          <internalNodes>
            0 -1 28 2.0120184868574142e-002</internalNodes>
          <leafValues>
            -1.6224169731140137e-001 1.3350319862365723e-001</leafValues></_>
        <_>
          <internalNodes>
            0 -1 267 1.4383167028427124e-002</internalNodes>
          <leafValues>
            9.0409569442272186e-002 -2.2462831437587738e-001</leafValues></_>
        <_>
          <internalNodes>
            0 -1 237 6.2801125459372997e-003</internalNodes>
          <leafValues>
            -2.5835010409355164e-001 8.0682463943958282e-002</leafValues></_>
        <_>
          <internalNodes>
            0 -1 169 4.5673660933971405e-002</internalNodes>
          <leafValues>
            -1.9574069976806641e-001 8.6820438504219055e-002</leafValues></_>
        <_>
          <internalNodes>
            0 -1 4 6.3360527157783508e-002</internalNodes>
          <leafValues>
            4.6929292380809784e-002 -3.9535382390022278e-001</leafValues></_>
        <_>
          <internalNodes>
            0 -1 253 8.6447283625602722e-002</internalNodes>
          <leafValues>
            2.3916810750961304e-002 -5.6725525856018066e-001</leafValues></_>
        <_>
          <internalNodes>
            0 -1 266 1.2550073862075806e-001</internalNodes>
          <leafValues>
            3.0506806448101997e-002 -4.5874026417732239e-001</leafValues></_>
        <_>
          <internalNodes>
            0 -1 268 1.2436574324965477e-002</internalNodes>
          <leafValues>
            7.9449467360973358e-002 -1.9688685238361359e-001</leafValues></_>
        <_>
          <internalNodes>
            0 -1 105 2.2966036573052406e-002</internalNodes>
          <leafValues>
            -2.5649356842041016e-001 6.5950371325016022e-002</leafValues></_>
        <_>
          <internalNodes>
            0 -1 108 6.1966101638972759e-003</internalNodes>
          <leafValues>
            -3.1411689519882202e-001 5.2004307508468628e-002</leafValues></_>
        <_>
          <internalNodes>
            0 -1 78 3.4675620496273041e-002</internalNodes>
          <leafValues>
            1.1007337272167206e-001 -1.3330630958080292e-001</leafValues></_>
        <_>
          <internalNodes>
            0 -1 113 4.2710743844509125e-002</internalNodes>
          <leafValues>
            -1.5733687579631805e-001 1.0625346750020981e-001</leafValues></_>
        <_>
          <internalNodes>
            0 -1 206 7.4975833296775818e-002</internalNodes>
          <leafValues>
            5.3039666265249252e-002 -2.8887337446212769e-001</leafValues></_>
        <_>
          <internalNodes>
            0 -1 227 8.5422143340110779e-002</internalNodes>
          <leafValues>
            -9.6012078225612640e-002 1.6792647540569305e-001</leafValues></_>
        <_>
          <internalNodes>
            0 -1 18 1.1830054223537445e-001</internalNodes>
          <leafValues>
            2.7084428817033768e-002 -5.8323431015014648e-001</leafValues></_>
        <_>
          <internalNodes>
            0 -1 34 8.4724903106689453e-002</internalNodes>
          <leafValues>
            2.1929593756794930e-002 -5.8674395084381104e-001</leafValues></_>
        <_>
          <internalNodes>
            0 -1 257 8.1658899784088135e-002</internalNodes>
          <leafValues>
            -9.7621880471706390e-002 1.6843667626380920e-001</leafValues></_>
        <_>
          <internalNodes>
            0 -1 265 1.3145112991333008e-001</internalNodes>
          <leafValues>
            2.9390662908554077e-002 -4.7933089733123779e-001</leafValues></_>
        <_>
          <internalNodes>
            0 -1 174 1.7573266522958875e-003</internalNodes>
          <leafValues>
            1.8781477212905884e-001 -8.0312274396419525e-002</leafValues></_>
        <_>
          <internalNodes>
            0 -1 56 7.1369316428899765e-003</internalNodes>
          <leafValues>
            -1.4434617757797241e-001 1.1573469638824463e-001</leafValues></_>
        <_>
          <internalNodes>
            0 -1 188 3.6811485886573792e-002</internalNodes>
          <leafValues>
            3.5038705915212631e-002 -3.4287306666374207e-001</leafValues></_>
        <_>
          <internalNodes>
            0 -1 66 1.6002170741558075e-002</internalNodes>
          <leafValues>
            -1.4352495968341827e-001 8.2640662789344788e-002</leafValues></_>
        <_>
          <internalNodes>
            0 -1 29 3.1220968812704086e-002</internalNodes>
          <leafValues>
            -8.6869955062866211e-002 1.4253942668437958e-001</leafValues></_>
        <_>
          <internalNodes>
            0 -1 80 3.2994508743286133e-002</internalNodes>
          <leafValues>
            -6.1660014092922211e-002 2.1214687824249268e-001</leafValues></_>
        <_>
          <internalNodes>
            0 -1 89 1.3445550575852394e-002</internalNodes>
          <leafValues>
            1.0825302451848984e-001 -1.5669266879558563e-001</leafValues></_>
        <_>
          <internalNodes>
            0 -1 265 3.3710377756506205e-003</internalNodes>
          <leafValues>
            -6.1405086517333984e-001 2.1585835143923759e-002</leafValues></_>
        <_>
          <internalNodes>
            0 -1 129 2.1095033735036850e-002</internalNodes>
          <leafValues>
            6.7959018051624298e-002 -1.8192581832408905e-001</leafValues></_>
        <_>
          <internalNodes>
            0 -1 106 9.8989121615886688e-003</internalNodes>
          <leafValues>
            -2.5785127282142639e-001 4.8132628202438354e-002</leafValues></_>
        <_>
          <internalNodes>
            0 -1 98 2.3259337991476059e-002</internalNodes>
          <leafValues>
            7.6356366276741028e-002 -1.7282287776470184e-001</leafValues></_>
        <_>
          <internalNodes>
            0 -1 167 9.1356784105300903e-003</internalNodes>
          <leafValues>
            1.0807090997695923e-001 -1.0814408957958221e-001</leafValues></_>
        <_>
          <internalNodes>
            0 -1 48 2.7933299541473389e-002</internalNodes>
          <leafValues>
            -8.1233970820903778e-002 1.3575881719589233e-001</leafValues></_>
        <_>
          <internalNodes>
            0 -1 102 2.1456386893987656e-002</internalNodes>
          <leafValues>
            6.0177017003297806e-002 -1.8444830179214478e-001</leafValues></_>
        <_>
          <internalNodes>
            0 -1 159 5.0169341266155243e-003</internalNodes>
          <leafValues>
            -4.3261376023292542e-001 2.6962151750922203e-002</leafValues></_>
        <_>
          <internalNodes>
            0 -1 161 2.2930068895220757e-002</internalNodes>
          <leafValues>
            9.3252673745155334e-002 -1.3052092492580414e-001</leafValues></_>
        <_>
          <internalNodes>
            0 -1 221 8.7134987115859985e-003</internalNodes>
          <leafValues>
            -2.9727613925933838e-001 3.9281975477933884e-002</leafValues></_>
        <_>
          <internalNodes>
            0 -1 12 3.4464798867702484e-002</internalNodes>
          <leafValues>
            -1.3762351870536804e-001 7.4853837490081787e-002</leafValues></_>
        <_>
          <internalNodes>
            0 -1 192 6.2554262578487396e-002</internalNodes>
          <leafValues>
            5.0214756280183792e-002 -2.3385693132877350e-001</leafValues></_>
        <_>
          <internalNodes>
            0 -1 260 2.2718794643878937e-002</internalNodes>
          <leafValues>
            3.1722106039524078e-002 -3.4057909250259399e-001</leafValues></_>
        <_>
          <internalNodes>
            0 -1 83 9.1844797134399414e-002</internalNodes>
          <leafValues>
            1.4844608493149281e-002 -6.9435203075408936e-001</leafValues></_>
        <_>
          <internalNodes>
            0 -1 78 1.5885028243064880e-001</internalNodes>
          <leafValues>
            1.3338492251932621e-002 -6.2554407119750977e-001</leafValues></_>
        <_>
          <internalNodes>
            0 -1 236 4.6104505658149719e-002</internalNodes>
          <leafValues>
            1.6050614416599274e-002 -5.2278804779052734e-001</leafValues></_>
        <_>
          <internalNodes>
            0 -1 85 2.4557713419198990e-002</internalNodes>
          <leafValues>
            2.3877149447798729e-002 -3.6513188481330872e-001</leafValues></_>
        <_>
          <internalNodes>
            0 -1 228 6.4714215695858002e-003</internalNodes>
          <leafValues>
            -1.3862664997577667e-001 7.4434824287891388e-002</leafValues></_>
        <_>
          <internalNodes>
            0 -1 121 6.2314286828041077e-002</internalNodes>
          <leafValues>
            1.0689893737435341e-002 -7.6899009943008423e-001</leafValues></_>
        <_>
          <internalNodes>
            0 -1 238 2.8355546295642853e-002</internalNodes>
          <leafValues>
            -6.9114997982978821e-002 1.2488465011119843e-001</leafValues></_>
        <_>
          <internalNodes>
            0 -1 269 8.3742532879114151e-003</internalNodes>
          <leafValues>
            1.0779313743114471e-001 -1.1225438117980957e-001</leafValues></_>
        <_>
          <internalNodes>
            0 -1 237 2.6139156892895699e-002</internalNodes>
          <leafValues>
            -6.2469936907291412e-002 1.8321332335472107e-001</leafValues></_>
        <_>
          <internalNodes>
            0 -1 270 6.0389071702957153e-002</internalNodes>
          <leafValues>
            2.8873974457383156e-002 -3.5496091842651367e-001</leafValues></_>
        <_>
          <internalNodes>
            0 -1 93 6.0348426923155785e-003</internalNodes>
          <leafValues>
            -2.6410973072052002e-001 3.5409200936555862e-002</leafValues></_>
        <_>
          <internalNodes>
            0 -1 266 8.9173585176467896e-002</internalNodes>
          <leafValues>
            3.7964254617691040e-002 -2.4834428727626801e-001</leafValues></_>
        <_>
          <internalNodes>
            0 -1 37 4.8529736697673798e-002</internalNodes>
          <leafValues>
            2.8520358726382256e-002 -3.0860611796379089e-001</leafValues></_>
        <_>
          <internalNodes>
            0 -1 38 1.4539809897542000e-002</internalNodes>
          <leafValues>
            -3.6206558346748352e-001 2.7550978586077690e-002</leafValues></_>
        <_>
          <internalNodes>
            0 -1 63 8.2397408783435822e-002</internalNodes>
          <leafValues>
            -1.9094616174697876e-002 5.0283706188201904e-001</leafValues></_>
        <_>
          <internalNodes>
            0 -1 6 2.1253466606140137e-002</internalNodes>
          <leafValues>
            5.9148129075765610e-002 -1.6166055202484131e-001</leafValues></_>
        <_>
          <internalNodes>
            0 -1 157 6.5855830907821655e-002</internalNodes>
          <leafValues>
            1.3920891098678112e-002 -5.5652832984924316e-001</leafValues></_>
        <_>
          <internalNodes>
            0 -1 100 4.5203160494565964e-002</internalNodes>
          <leafValues>
            -4.3954156339168549e-002 1.8904952704906464e-001</leafValues></_>
        <_>
          <internalNodes>
            0 -1 95 8.8145118206739426e-003</internalNodes>
          <leafValues>
            -2.4464665353298187e-001 3.7811443209648132e-002</leafValues></_>
        <_>
          <internalNodes>
            0 -1 165 2.0305937156081200e-002</internalNodes>
          <leafValues>
            3.3065598458051682e-002 -2.4082092940807343e-001</leafValues></_>
        <_>
          <internalNodes>
            0 -1 44 1.7203360795974731e-002</internalNodes>
          <leafValues>
            -7.9642012715339661e-002 1.1111704260110855e-001</leafValues></_>
        <_>
          <internalNodes>
            0 -1 45 2.0552242174744606e-002</internalNodes>
          <leafValues>
            7.0332862436771393e-002 -1.3726125657558441e-001</leafValues></_>
        <_>
          <internalNodes>
            0 -1 219 1.0742272436618805e-001</internalNodes>
          <leafValues>
            1.3947276398539543e-002 -6.1855709552764893e-001</leafValues></_>
        <_>
          <internalNodes>
            0 -1 240 1.6278690099716187e-001</internalNodes>
          <leafValues>
            -3.0393421649932861e-002 3.5909187793731689e-001</leafValues></_>
        <_>
          <internalNodes>
            0 -1 177 1.1306647956371307e-001</internalNodes>
          <leafValues>
            -3.9237886667251587e-002 1.9694775342941284e-001</leafValues></_>
        <_>
          <internalNodes>
            0 -1 234 1.0726678371429443e-001</internalNodes>
          <leafValues>
            2.9846802353858948e-002 -2.8823101520538330e-001</leafValues></_>
        <_>
          <internalNodes>
            0 -1 153 5.0009656697511673e-003</internalNodes>
          <leafValues>
            -8.3845090866088867e-001 8.7063545361161232e-003</leafValues></_>
        <_>
          <internalNodes>
            0 -1 123 2.5599326938390732e-002</internalNodes>
          <leafValues>
            5.4443426430225372e-002 -1.3252153992652893e-001</leafValues></_>
        <_>
          <internalNodes>
            0 -1 203 1.5679072588682175e-002</internalNodes>
          <leafValues>
            -1.1024694889783859e-001 7.8030146658420563e-002</leafValues></_>
        <_>
          <internalNodes>
            0 -1 190 2.2551147267222404e-002</internalNodes>
          <leafValues>
            6.0370545834302902e-002 -1.3996574282646179e-001</leafValues></_>
        <_>
          <internalNodes>
            0 -1 71 3.7694502621889114e-002</internalNodes>
          <leafValues>
            1.5577530860900879e-001 -5.3201381117105484e-002</leafValues></_>
        <_>
          <internalNodes>
            0 -1 243 7.0123121142387390e-002</internalNodes>
          <leafValues>
            8.7301358580589294e-003 -8.4047996997833252e-001</leafValues></_>
        <_>
          <internalNodes>
            0 -1 15 7.7560372650623322e-002</internalNodes>
          <leafValues>
            7.2475327178835869e-003 -7.9045480489730835e-001</leafValues></_>
        <_>
          <internalNodes>
            0 -1 68 5.3157139569520950e-002</internalNodes>
          <leafValues>
            1.3292541727423668e-002 -4.9782285094261169e-001</leafValues></_>
        <_>
          <internalNodes>
            0 -1 171 2.0568156614899635e-003</internalNodes>
          <leafValues>
            1.5097472071647644e-001 -5.1169097423553467e-002</leafValues></_>
        <_>
          <internalNodes>
            0 -1 78 8.6386770009994507e-002</internalNodes>
          <leafValues>
            4.2836457490921021e-002 -2.5765365362167358e-001</leafValues></_>
        <_>
          <internalNodes>
            0 -1 109 5.2756797522306442e-003</internalNodes>
          <leafValues>
            -2.5430393218994141e-001 2.7464106678962708e-002</leafValues></_>
        <_>
          <internalNodes>
            0 -1 145 1.0765438899397850e-002</internalNodes>
          <leafValues>
            -5.7892817258834839e-001 1.2657912448048592e-002</leafValues></_>
        <_>
          <internalNodes>
            0 -1 266 1.5313158743083477e-002</internalNodes>
          <leafValues>
            1.6561284661293030e-001 -4.7930497676134109e-002</leafValues></_>
        <_>
          <internalNodes>
            0 -1 215 1.3790193945169449e-002</internalNodes>
          <leafValues>
            8.3313673734664917e-002 -9.7652338445186615e-002</leafValues></_>
        <_>
          <internalNodes>
            0 -1 269 3.8764990866184235e-002</internalNodes>
          <leafValues>
            2.3495377972722054e-002 -3.4487447142601013e-001</leafValues></_>
        <_>
          <internalNodes>
            0 -1 225 5.0914660096168518e-003</internalNodes>
          <leafValues>
            -1.1938355863094330e-001 6.5100163221359253e-002</leafValues></_>
        <_>
          <internalNodes>
            0 -1 254 1.4225354418158531e-002</internalNodes>
          <leafValues>
            4.2667079716920853e-002 -1.9345830380916595e-001</leafValues></_>
        <_>
          <internalNodes>
            0 -1 27 1.0484412778168917e-003</internalNodes>
          <leafValues>
            -6.7351460456848145e-001 1.0621323250234127e-002</leafValues></_>
        <_>
          <internalNodes>
            0 -1 264 9.5684505999088287e-002</internalNodes>
          <leafValues>
            1.0796722024679184e-002 -5.7058966159820557e-001</leafValues></_>
        <_>
          <internalNodes>
            0 -1 79 7.0457374677062035e-003</internalNodes>
          <leafValues>
            -5.3593343496322632e-001 1.2009116820991039e-002</leafValues></_>
        <_>
          <internalNodes>
            0 -1 206 1.5383911132812500e-001</internalNodes>
          <leafValues>
            6.4601288177073002e-003 -8.6603164672851563e-001</leafValues></_></weakClassifiers></_>
    <!-- stage 8 -->
    <_>
      <maxWeakCount>100</maxWeakCount>
      <stageThreshold>-1.9707653522491455e+000</stageThreshold>
      <weakClassifiers>
        <_>
          <internalNodes>
            0 -1 262 7.2021939558908343e-004</internalNodes>
          <leafValues>
            -1.9260533154010773e-001 -5.9829527139663696e-001</leafValues></_>
        <_>
          <internalNodes>
            0 -1 198 7.5919553637504578e-002</internalNodes>
          <leafValues>
            -2.0815841853618622e-001 1.9130609929561615e-001</leafValues></_>
        <_>
          <internalNodes>
            0 -1 169 7.6625056564807892e-002</internalNodes>
          <leafValues>
            -1.9032375514507294e-001 1.9741782546043396e-001</leafValues></_>
        <_>
          <internalNodes>
            0 -1 266 5.4923910647630692e-002</internalNodes>
          <leafValues>
            1.2837950885295868e-001 -3.0966702103614807e-001</leafValues></_>
        <_>
          <internalNodes>
            0 -1 77 8.5779968649148941e-003</internalNodes>
          <leafValues>
            1.8667094409465790e-001 -1.5947474539279938e-001</leafValues></_>
        <_>
          <internalNodes>
            0 -1 11 3.5298518836498260e-002</internalNodes>
          <leafValues>
            -1.8107281625270844e-001 1.8235751986503601e-001</leafValues></_>
        <_>
          <internalNodes>
            0 -1 177 5.2136041224002838e-002</internalNodes>
          <leafValues>
            -1.9177237153053284e-001 9.0624421834945679e-002</leafValues></_>
        <_>
          <internalNodes>
            0 -1 221 1.6064584255218506e-002</internalNodes>
          <leafValues>
            -2.1914307773113251e-001 1.2782299518585205e-001</leafValues></_>
        <_>
          <internalNodes>
            0 -1 78 5.0137203186750412e-002</internalNodes>
          <leafValues>
            1.0279416292905807e-001 -2.3193325102329254e-001</leafValues></_>
        <_>
          <internalNodes>
            0 -1 173 1.7842058092355728e-002</internalNodes>
          <leafValues>
            5.4593946784734726e-002 -2.9549911618232727e-001</leafValues></_>
        <_>
          <internalNodes>
            0 -1 44 9.9934730678796768e-003</internalNodes>
          <leafValues>
            -1.6346038877964020e-001 1.2006543576717377e-001</leafValues></_>
        <_>
          <internalNodes>
            0 -1 247 1.6339704394340515e-002</internalNodes>
          <leafValues>
            -1.8232347071170807e-001 1.0836219042539597e-001</leafValues></_>
        <_>
          <internalNodes>
            0 -1 267 1.6464024782180786e-002</internalNodes>
          <leafValues>
            7.9733818769454956e-002 -2.3019805550575256e-001</leafValues></_>
        <_>
          <internalNodes>
            0 -1 140 3.1259410083293915e-002</internalNodes>
          <leafValues>
            -3.4464243054389954e-001 4.9870502203702927e-002</leafValues></_>
        <_>
          <internalNodes>
            0 -1 28 1.1164125055074692e-002</internalNodes>
          <leafValues>
            -2.7648514509201050e-001 6.9576919078826904e-002</leafValues></_>
        <_>
          <internalNodes>
            0 -1 185 1.5418972820043564e-002</internalNodes>
          <leafValues>
            -4.5717409253120422e-001 3.4101046621799469e-002</leafValues></_>
        <_>
          <internalNodes>
            0 -1 76 8.5554923862218857e-003</internalNodes>
          <leafValues>
            1.0068467259407043e-001 -1.5045017004013062e-001</leafValues></_>
        <_>
          <internalNodes>
            0 -1 51 1.6197390854358673e-002</internalNodes>
          <leafValues>
            -1.3486480712890625e-001 1.1860020458698273e-001</leafValues></_>
        <_>
          <internalNodes>
            0 -1 204 6.9675864651799202e-003</internalNodes>
          <leafValues>
            -3.6864444613456726e-001 3.6874908953905106e-002</leafValues></_>
        <_>
          <internalNodes>
            0 -1 25 7.7209040522575378e-002</internalNodes>
          <leafValues>
            -9.3806169927120209e-002 1.5895357728004456e-001</leafValues></_>
        <_>
          <internalNodes>
            0 -1 107 2.0482234656810760e-002</internalNodes>
          <leafValues>
            -1.2214916944503784e-001 1.4863267540931702e-001</leafValues></_>
        <_>
          <internalNodes>
            0 -1 257 1.0874345898628235e-001</internalNodes>
          <leafValues>
            -7.6343521475791931e-002 2.5591495633125305e-001</leafValues></_>
        <_>
          <internalNodes>
            0 -1 63 4.0036313235759735e-002</internalNodes>
          <leafValues>
            -6.9715082645416260e-002 2.2820487618446350e-001</leafValues></_>
        <_>
          <internalNodes>
            0 -1 57 4.8572262749075890e-003</internalNodes>
          <leafValues>
            -1.5080586075782776e-001 9.3249544501304626e-002</leafValues></_>
        <_>
          <internalNodes>
            0 -1 240 2.7020249515771866e-002</internalNodes>
          <leafValues>
            -3.0205127596855164e-001 4.9237608909606934e-002</leafValues></_>
        <_>
          <internalNodes>
            0 -1 207 1.8322654068470001e-002</internalNodes>
          <leafValues>
            -1.4037074148654938e-001 9.8250359296798706e-002</leafValues></_>
        <_>
          <internalNodes>
            0 -1 182 2.3333987221121788e-002</internalNodes>
          <leafValues>
            5.3381815552711487e-002 -2.6516404747962952e-001</leafValues></_>
        <_>
          <internalNodes>
            0 -1 30 1.2761646881699562e-002</internalNodes>
          <leafValues>
            -3.2179194688796997e-001 3.6550112068653107e-002</leafValues></_>
        <_>
          <internalNodes>
            0 -1 238 1.4240020886063576e-002</internalNodes>
          <leafValues>
            -1.5268242359161377e-001 8.2702808082103729e-002</leafValues></_>
        <_>
          <internalNodes>
            0 -1 190 1.4470892027020454e-002</internalNodes>
          <leafValues>
            1.1052522808313370e-001 -1.0608327388763428e-001</leafValues></_>
        <_>
          <internalNodes>
            0 -1 29 4.6127468347549438e-002</internalNodes>
          <leafValues>
            -4.7691196203231812e-002 2.2349514067173004e-001</leafValues></_>
        <_>
          <internalNodes>
            0 -1 217 5.1088534295558929e-002</internalNodes>
          <leafValues>
            2.0948940888047218e-002 -5.2939391136169434e-001</leafValues></_>
        <_>
          <internalNodes>
            0 -1 180 2.4152334779500961e-002</internalNodes>
          <leafValues>
            2.3316442966461182e-002 -4.1687569022178650e-001</leafValues></_>
        <_>
          <internalNodes>
            0 -1 270 1.1676461249589920e-001</internalNodes>
          <leafValues>
            1.1627854779362679e-002 -8.0527174472808838e-001</leafValues></_>
        <_>
          <internalNodes>
            0 -1 266 1.1406888067722321e-001</internalNodes>
          <leafValues>
            2.6653913781046867e-002 -3.4212312102317810e-001</leafValues></_>
        <_>
          <internalNodes>
            0 -1 256 7.7129025012254715e-003</internalNodes>
          <leafValues>
            1.2860634922981262e-001 -1.0127431154251099e-001</leafValues></_>
        <_>
          <internalNodes>
            0 -1 169 3.1840987503528595e-002</internalNodes>
          <leafValues>
            -2.0931416749954224e-001 5.2226752042770386e-002</leafValues></_>
        <_>
          <internalNodes>
            0 -1 266 2.0238917320966721e-002</internalNodes>
          <leafValues>
            1.5988327562808990e-001 -6.9837667047977448e-002</leafValues></_>
        <_>
          <internalNodes>
            0 -1 265 2.6334773749113083e-002</internalNodes>
          <leafValues>
            -1.5323436260223389e-001 6.6066324710845947e-002</leafValues></_>
        <_>
          <internalNodes>
            0 -1 145 1.9933176040649414e-001</internalNodes>
          <leafValues>
            1.2048067525029182e-002 -7.6349216699600220e-001</leafValues></_>
        <_>
          <internalNodes>
            0 -1 4 6.4289957284927368e-002</internalNodes>
          <leafValues>
            2.9571434482932091e-002 -3.1766098737716675e-001</leafValues></_>
        <_>
          <internalNodes>
            0 -1 184 1.5014490112662315e-002</internalNodes>
          <leafValues>
            -3.1959235668182373e-001 3.0750311911106110e-002</leafValues></_>
        <_>
          <internalNodes>
            0 -1 20 8.2001378759741783e-003</internalNodes>
          <leafValues>
            -2.7749964594841003e-001 3.3763740211725235e-002</leafValues></_>
        <_>
          <internalNodes>
            0 -1 6 3.0430611222982407e-002</internalNodes>
          <leafValues>
            3.3679619431495667e-002 -2.9254889488220215e-001</leafValues></_>
        <_>
          <internalNodes>
            0 -1 27 2.3578539490699768e-002</internalNodes>
          <leafValues>
            -8.4571905434131622e-002 1.0540552437305450e-001</leafValues></_>
        <_>
          <internalNodes>
            0 -1 124 3.4097876399755478e-002</internalNodes>
          <leafValues>
            4.8449311405420303e-002 -2.7073511481285095e-001</leafValues></_>
        <_>
          <internalNodes>
            0 -1 182 2.8386097401380539e-003</internalNodes>
          <leafValues>
            1.2360927462577820e-001 -7.6637081801891327e-002</leafValues></_>
        <_>
          <internalNodes>
            0 -1 229 9.9564669653773308e-003</internalNodes>
          <leafValues>
            -9.4599850475788116e-002 1.1799907684326172e-001</leafValues></_>
        <_>
          <internalNodes>
            0 -1 91 2.6237886399030685e-002</internalNodes>
          <leafValues>
            1.7611473798751831e-002 -5.1808518171310425e-001</leafValues></_>
        <_>
          <internalNodes>
            0 -1 265 1.2010355293750763e-001</internalNodes>
          <leafValues>
            2.7903255075216293e-002 -3.6049219965934753e-001</leafValues></_>
        <_>
          <internalNodes>
            0 -1 245 4.6077191829681396e-002</internalNodes>
          <leafValues>
            2.5047700852155685e-002 -3.7013959884643555e-001</leafValues></_>
        <_>
          <internalNodes>
            0 -1 136 1.7898838268592954e-003</internalNodes>
          <leafValues>
            -4.3842348456382751e-001 2.0376177504658699e-002</leafValues></_>
        <_>
          <internalNodes>
            0 -1 219 1.0745765268802643e-001</internalNodes>
          <leafValues>
            1.1423693038523197e-002 -6.3535177707672119e-001</leafValues></_>
        <_>
          <internalNodes>
            0 -1 240 1.3095888495445251e-001</internalNodes>
          <leafValues>
            -4.1619226336479187e-002 2.6977774500846863e-001</leafValues></_>
        <_>
          <internalNodes>
            0 -1 80 2.0907292142510414e-002</internalNodes>
          <leafValues>
            -8.5591956973075867e-002 1.2739610671997070e-001</leafValues></_>
        <_>
          <internalNodes>
            0 -1 18 1.3042253255844116e-001</internalNodes>
          <leafValues>
            1.2695537880063057e-002 -6.9938915967941284e-001</leafValues></_>
        <_>
          <internalNodes>
            0 -1 171 2.0568156614899635e-003</internalNodes>
          <leafValues>
            1.6498073935508728e-001 -6.1734504997730255e-002</leafValues></_>
        <_>
          <internalNodes>
            0 -1 105 4.3205134570598602e-002</internalNodes>
          <leafValues>
            -8.6176231503486633e-002 1.0422561317682266e-001</leafValues></_>
        <_>
          <internalNodes>
            0 -1 93 1.1394939385354519e-002</internalNodes>
          <leafValues>
            -1.6592505574226379e-001 6.7068137228488922e-002</leafValues></_>
        <_>
          <internalNodes>
            0 -1 259 2.9564982280135155e-002</internalNodes>
          <leafValues>
            3.5214815288782120e-002 -2.2686824202537537e-001</leafValues></_>
        <_>
          <internalNodes>
            0 -1 69 3.4227091819047928e-003</internalNodes>
          <leafValues>
            -4.1410344839096069e-001 2.0072313025593758e-002</leafValues></_>
        <_>
          <internalNodes>
            0 -1 37 2.8580876067280769e-002</internalNodes>
          <leafValues>
            6.3979536294937134e-002 -1.4168280363082886e-001</leafValues></_>
        <_>
          <internalNodes>
            0 -1 33 3.1788509339094162e-002</internalNodes>
          <leafValues>
            3.7279482930898666e-002 -2.1212305128574371e-001</leafValues></_>
        <_>
          <internalNodes>
            0 -1 78 1.0028475522994995e-001</internalNodes>
          <leafValues>
            2.5415152311325073e-002 -2.9993441700935364e-001</leafValues></_>
        <_>
          <internalNodes>
            0 -1 161 4.0811195969581604e-002</internalNodes>
          <leafValues>
            3.8750573992729187e-002 -2.0917662978172302e-001</leafValues></_>
        <_>
          <internalNodes>
            0 -1 251 9.3705458566546440e-003</internalNodes>
          <leafValues>
            -1.9753183424472809e-001 4.4757939875125885e-002</leafValues></_>
        <_>
          <internalNodes>
            0 -1 267 5.2255420014262199e-003</internalNodes>
          <leafValues>
            1.3101930916309357e-001 -6.4798012375831604e-002</leafValues></_>
        <_>
          <internalNodes>
            0 -1 66 9.4741240143775940e-002</internalNodes>
          <leafValues>
            1.3450052589178085e-002 -5.8338230848312378e-001</leafValues></_>
        <_>
          <internalNodes>
            0 -1 84 2.6860777288675308e-002</internalNodes>
          <leafValues>
            1.7126111313700676e-002 -4.3156155943870544e-001</leafValues></_>
        <_>
          <internalNodes>
            0 -1 231 1.2353500351309776e-002</internalNodes>
          <leafValues>
            -1.2444288283586502e-001 7.2843223810195923e-002</leafValues></_>
        <_>
          <internalNodes>
            0 -1 205 2.5699960067868233e-002</internalNodes>
          <leafValues>
            -1.6089162230491638e-001 5.6056376546621323e-002</leafValues></_>
        <_>
          <internalNodes>
            0 -1 101 2.6920139789581299e-003</internalNodes>
          <leafValues>
            -3.0700561404228210e-001 2.1949322894215584e-002</leafValues></_>
        <_>
          <internalNodes>
            0 -1 189 1.5389267355203629e-002</internalNodes>
          <leafValues>
            7.7829107642173767e-002 -1.0562314093112946e-001</leafValues></_>
        <_>
          <internalNodes>
            0 -1 191 4.1958102956414223e-003</internalNodes>
          <leafValues>
            -3.2868537306785583e-001 2.0741060376167297e-002</leafValues></_>
        <_>
          <internalNodes>
            0 -1 222 4.9579378217458725e-002</internalNodes>
          <leafValues>
            -2.8958998620510101e-002 2.6002016663551331e-001</leafValues></_>
        <_>
          <internalNodes>
            0 -1 225 2.3912593722343445e-002</internalNodes>
          <leafValues>
            -3.3614549785852432e-002 2.1616527438163757e-001</leafValues></_>
        <_>
          <internalNodes>
            0 -1 227 7.9131677746772766e-002</internalNodes>
          <leafValues>
            -7.4226841330528259e-002 9.9456280469894409e-002</leafValues></_>
        <_>
          <internalNodes>
            0 -1 95 1.2310707941651344e-002</internalNodes>
          <leafValues>
            -1.6848093271255493e-001 4.5947175472974777e-002</leafValues></_>
        <_>
          <internalNodes>
            0 -1 87 8.9154377579689026e-002</internalNodes>
          <leafValues>
            -6.2100306153297424e-002 1.3609819114208221e-001</leafValues></_>
        <_>
          <internalNodes>
            0 -1 79 2.0225630700588226e-001</internalNodes>
          <leafValues>
            1.0622879490256310e-002 -7.1157652139663696e-001</leafValues></_>
        <_>
          <internalNodes>
            0 -1 77 2.1900661289691925e-002</internalNodes>
          <leafValues>
            3.6321189254522324e-002 -1.7940625548362732e-001</leafValues></_>
        <_>
          <internalNodes>
            0 -1 235 4.9530290067195892e-002</internalNodes>
          <leafValues>
            6.6275067627429962e-002 -1.1005515605211258e-001</leafValues></_>
        <_>
          <internalNodes>
            0 -1 255 2.3433830589056015e-002</internalNodes>
          <leafValues>
            2.2642033174633980e-002 -3.2015556097030640e-001</leafValues></_>
        <_>
          <internalNodes>
            0 -1 83 1.0664610564708710e-001</internalNodes>
          <leafValues>
            9.1950818896293640e-003 -7.3729920387268066e-001</leafValues></_>
        <_>
          <internalNodes>
            0 -1 106 1.3446410186588764e-002</internalNodes>
          <leafValues>
            -1.4981207251548767e-001 4.6137977391481400e-002</leafValues></_>
        <_>
          <internalNodes>
            0 -1 5 1.9055884331464767e-002</internalNodes>
          <leafValues>
            6.9090478122234344e-002 -1.1097142100334167e-001</leafValues></_>
        <_>
          <internalNodes>
            0 -1 169 1.1720186471939087e-001</internalNodes>
          <leafValues>
            -4.4544242322444916e-002 1.5816146135330200e-001</leafValues></_>
        <_>
          <internalNodes>
            0 -1 64 1.2330946512520313e-002</internalNodes>
          <leafValues>
            -1.3034042716026306e-001 6.2994360923767090e-002</leafValues></_>
        <_>
          <internalNodes>
            0 -1 137 6.3606068491935730e-002</internalNodes>
          <leafValues>
            1.7860708758234978e-002 -3.5799518227577209e-001</leafValues></_>
        <_>
          <internalNodes>
            0 -1 187 5.4378546774387360e-002</internalNodes>
          <leafValues>
            -3.0453478917479515e-002 2.7900773286819458e-001</leafValues></_>
        <_>
          <internalNodes>
            0 -1 43 2.0845651626586914e-002</internalNodes>
          <leafValues>
            5.4048623889684677e-002 -1.4164595305919647e-001</leafValues></_>
        <_>
          <internalNodes>
            0 -1 230 1.1456446722149849e-002</internalNodes>
          <leafValues>
            -7.2861745953559875e-002 9.3944661319255829e-002</leafValues></_>
        <_>
          <internalNodes>
            0 -1 269 1.1712781153619289e-002</internalNodes>
          <leafValues>
            7.2980307042598724e-002 -1.0768374055624008e-001</leafValues></_>
        <_>
          <internalNodes>
            0 -1 266 8.9240290224552155e-002</internalNodes>
          <leafValues>
            3.8916036486625671e-002 -2.4849380552768707e-001</leafValues></_>
        <_>
          <internalNodes>
            0 -1 117 1.4286421239376068e-002</internalNodes>
          <leafValues>
            7.8733049333095551e-002 -8.6259849369525909e-002</leafValues></_>
        <_>
          <internalNodes>
            0 -1 58 1.4017698355019093e-002</internalNodes>
          <leafValues>
            -1.3128948211669922e-001 6.0165241360664368e-002</leafValues></_>
        <_>
          <internalNodes>
            0 -1 265 6.7479498684406281e-003</internalNodes>
          <leafValues>
            -3.5786223411560059e-001 2.0417364314198494e-002</leafValues></_>
        <_>
          <internalNodes>
            0 -1 154 1.2891486287117004e-001</internalNodes>
          <leafValues>
            -3.2658141106367111e-002 2.1587818861007690e-001</leafValues></_>
        <_>
          <internalNodes>
            0 -1 250 7.6138406991958618e-002</internalNodes>
          <leafValues>
            4.3807741254568100e-002 -1.8348774313926697e-001</leafValues></_>
        <_>
          <internalNodes>
            0 -1 263 3.8006943650543690e-003</internalNodes>
          <leafValues>
            1.2765035033226013e-001 -5.5895783007144928e-002</leafValues></_></weakClassifiers></_>
    <!-- stage 9 -->
    <_>
      <maxWeakCount>100</maxWeakCount>
      <stageThreshold>-1.9148182868957520e+000</stageThreshold>
      <weakClassifiers>
        <_>
          <internalNodes>
            0 -1 254 1.6194150084629655e-003</internalNodes>
          <leafValues>
            -2.8102973103523254e-001 -6.1275053024291992e-001</leafValues></_>
        <_>
          <internalNodes>
            0 -1 216 1.5472672879695892e-002</internalNodes>
          <leafValues>
            7.7203214168548584e-002 -3.1467756628990173e-001</leafValues></_>
        <_>
          <internalNodes>
            0 -1 177 1.0416200757026672e-001</internalNodes>
          <leafValues>
            -1.0385498404502869e-001 2.9694163799285889e-001</leafValues></_>
        <_>
          <internalNodes>
            0 -1 78 3.6088779568672180e-002</internalNodes>
          <leafValues>
            1.3891869783401489e-001 -1.8271273374557495e-001</leafValues></_>
        <_>
          <internalNodes>
            0 -1 79 3.7116602063179016e-002</internalNodes>
          <leafValues>
            -2.1529930830001831e-001 1.2629237771034241e-001</leafValues></_>
        <_>
          <internalNodes>
            0 -1 266 5.5498473346233368e-002</internalNodes>
          <leafValues>
            1.0603936016559601e-001 -2.6109051704406738e-001</leafValues></_>
        <_>
          <internalNodes>
            0 -1 180 8.2657486200332642e-003</internalNodes>
          <leafValues>
            1.0640692710876465e-001 -2.3145127296447754e-001</leafValues></_>
        <_>
          <internalNodes>
            0 -1 15 8.7848054245114326e-003</internalNodes>
          <leafValues>
            -2.4934466183185577e-001 9.0900257229804993e-002</leafValues></_>
        <_>
          <internalNodes>
            0 -1 184 2.8490971773862839e-002</internalNodes>
          <leafValues>
            -2.3844501376152039e-001 7.8250430524349213e-002</leafValues></_>
        <_>
          <internalNodes>
            0 -1 77 1.2882662005722523e-002</internalNodes>
          <leafValues>
            1.1010629683732986e-001 -1.9482354819774628e-001</leafValues></_>
        <_>
          <internalNodes>
            0 -1 4 3.0938472598791122e-002</internalNodes>
          <leafValues>
            1.2476234138011932e-001 -1.4418973028659821e-001</leafValues></_>
        <_>
          <internalNodes>
            0 -1 169 9.4444766640663147e-002</internalNodes>
          <leafValues>
            -9.3288205564022064e-002 1.6742753982543945e-001</leafValues></_>
        <_>
          <internalNodes>
            0 -1 222 9.9134668707847595e-003</internalNodes>
          <leafValues>
            -3.0075514316558838e-001 5.8875773102045059e-002</leafValues></_>
        <_>
          <internalNodes>
            0 -1 70 4.2864143848419189e-002</internalNodes>
          <leafValues>
            -2.0453386008739471e-001 7.6020374894142151e-002</leafValues></_>
        <_>
          <internalNodes>
            0 -1 238 1.0733239352703094e-002</internalNodes>
          <leafValues>
            -1.9680087268352509e-001 8.5758969187736511e-002</leafValues></_>
        <_>
          <internalNodes>
            0 -1 270 4.6011064201593399e-002</internalNodes>
          <leafValues>
            5.0721552222967148e-002 -3.4767431020736694e-001</leafValues></_>
        <_>
          <internalNodes>
            0 -1 105 2.3381015285849571e-002</internalNodes>
          <leafValues>
            -2.5597468018531799e-001 5.8856107294559479e-002</leafValues></_>
        <_>
          <internalNodes>
            0 -1 28 2.4655526503920555e-002</internalNodes>
          <leafValues>
            -1.1344115436077118e-001 1.3077320158481598e-001</leafValues></_>
        <_>
          <internalNodes>
            0 -1 177 2.9377408325672150e-002</internalNodes>
          <leafValues>
            -2.0887939631938934e-001 6.4554408192634583e-002</leafValues></_>
        <_>
          <internalNodes>
            0 -1 63 2.0218022167682648e-002</internalNodes>
          <leafValues>
            -1.6405834257602692e-001 9.7210869193077087e-002</leafValues></_>
        <_>
          <internalNodes>
            0 -1 267 5.5096247233450413e-003</internalNodes>
          <leafValues>
            1.5762284398078918e-001 -8.7521970272064209e-002</leafValues></_>
        <_>
          <internalNodes>
            0 -1 265 1.0341573506593704e-001</internalNodes>
          <leafValues>
            4.2197957634925842e-002 -3.2083249092102051e-001</leafValues></_>
        <_>
          <internalNodes>
            0 -1 93 1.2730869930237532e-003</internalNodes>
          <leafValues>
            -5.8211898803710938e-001 1.7803631722927094e-002</leafValues></_>
        <_>
          <internalNodes>
            0 -1 157 4.4505394995212555e-002</internalNodes>
          <leafValues>
